svm_type epsilon_svr
kernel_type rbf
gamma 4.1
nr_class 2
total_sv 296
rho -337.13504978327927
SV
0.8 1:0.9861810285263056 2:0.9772612430520465 3:0.9742716988687556 4:0.9486518636003172 5:0.04736307363163148 
0.8 1:0.9501529957556021 2:0.9499747347145023 3:0.9490439483431777 4:0.9574742268041241 5:0.03914547741279994 
0.8 1:0.8909288322969109 2:0.9212733703890852 3:0.90749824807288 4:0.9342783505154639 5:0.05013360307578002 
0.8 1:0.8459184680683056 2:0.9073269327943404 3:0.854539993993393 4:0.8930412371134024 5:0.06846654104546085 
0.8 1:0.8498667456322182 2:0.8373926225366344 3:0.850936029632596 4:0.8455590800951627 5:0.015813054161836516 
0.8 1:0.8656598558878693 2:0.836179888832744 3:0.8443287616378015 4:0.8258326724821571 5:0.04195181337642051 
0.8 1:0.8769124469450206 2:0.8820616472966143 3:0.8760636700370408 4:0.8440721649484539 5:0.04418972084342256 
-0.8 1:0.8633895962886193 2:0.8660939868620515 3:0.8764641105215739 4:0.8687549563838223 5:0.013337928503332245 
0.8 1:0.8164050932780578 2:0.8362809499747348 3:0.826609270197217 4:0.8288065027755751 5:0.04878638278064479 
0.8 1:0.8408844141743164 2:0.8183931278423443 3:0.8173991390529581 4:0.7969865186360036 5:0.06322536175774204 
0.8 1:0.8959628861908996 2:0.9103587670540677 3:0.863850235258785 4:0.8327716098334654 5:0.08340233548023257 
0.8 1:0.8843154673773569 2:0.857200606366852 3:0.8836720392431674 4:0.8637985725614591 5:0.03178723766129718 
0.8 1:0.9245878985292667 2:0.9231935320869123 3:0.9104014415857444 4:0.8739095955590804 5:0.03229300474883964 
0.8 1:0.9070180633698554 2:0.8989388580090955 3:0.9202122334568028 4:0.9074147501982556 5:0.09918853475246506 
0.24799730458041128 1:0.883130984108183 2:0.8760990399191512 3:0.8828711582741016 4:0.855372720063442 5:0.017795840177600337 
0.8 1:0.844635277860034 2:0.8647801920161698 3:0.8279107017719491 4:0.8742069785884219 5:0.05103771769244885 
0.8 1:0.8558878689171853 2:0.8497220818595249 3:0.8573430773851236 4:0.8422878667724032 5:0.023417463734709498 
0.8 1:0.8486822623630443 2:0.8440626579080343 3:0.828110922014216 4:0.856463124504362 5:0.03761027289043652 
0.8 1:0.8599348534201955 2:0.8445679636179889 3:0.8277104815296829 4:0.8290047581284694 5:0.04913997216043111 
0.8 1:0.8332839798637846 2:0.8598281960586154 3:0.8361197317048753 4:0.8652854877081684 5:0.05801551317456126 
0.8 1:0.8509525219622943 2:0.8381000505305711 3:0.8235058564420863 4:0.7872720063441715 5:0.04392117194738232 
0.8 1:0.918468068305202 2:0.8827690752905505 3:0.8527380118129945 4:0.8183980967486123 5:0.07193529761931404 
0.8 1:0.9278452275194946 2:0.8985346134411316 3:0.9138051857042746 4:0.9081086439333864 5:0.03569909991361677 
0.8 1:0.9981245681571415 2:0.9760485093481556 3:0.9498448293122436 4:0.9232751784298175 5:0.04982477184533374 
0.8 1:0.9990129306090222 2:0.9903991915108642 3:1.0 4:1.0 5:0.05280118877644647 
0.8 1:1.0 2:0.9851440121273367 3:0.9829812794073481 4:0.9493457573354485 5:0.03335824870313262 
0.8 1:0.982627578718784 2:0.9669530065689744 3:0.9770747822604869 4:0.9680808881839813 5:0.01936685121943578 
0.8 1:0.9520284275984606 2:0.9649317837291559 3:0.9558514365802385 4:0.9784892942109441 5:0.027991746597261696 
0.8 1:0.9831211134142732 2:0.9658413340070743 3:0.9589548503353692 4:0.9239690721649488 5:0.04558617510283185 
0.8 1:0.9838120619879579 2:1.0 3:0.9938932826108718 4:0.9699643140364792 5:0.05251473662067021 
0.8 1:0.9166913434014411 2:0.9846387064173827 3:0.9264190609670641 4:0.9756145915939732 5:0.07432985860900623 
0.8 1:0.9303129009969401 2:0.9101566447700861 3:0.9226148763640007 4:0.9084060269627279 5:0.01821656678139672 
0.8 1:0.9775935248247953 2:0.9511874684183933 3:0.9410351386525179 4:0.923770816812054 5:0.02968360464231525 
0.8 1:0.9300167801796468 2:0.942698332491157 3:0.9194113524877364 4:0.9586637589214912 5:0.07806716407889966 
0.8 1:0.8793801204224659 2:0.9243052046488124 3:0.8952848132946243 4:0.912470261697066 5:0.06445173504965916 
0.8 1:0.8822426216563024 2:0.8723597776654877 3:0.8894784262688962 4:0.8566613798572563 5:0.05088106416975871 
0.8 1:0.9211331556608434 2:0.9052046488125316 3:0.8876764440884977 4:0.8770816812053928 5:0.09665074768488473 
0.8 1:0.9279439344585929 2:0.9356240525517938 3:0.9311242366603264 4:0.9405233941316415 5:0.08778415830062258 
0.8 1:0.8952719376172149 2:0.8902475997978776 3:0.8924817299028931 4:0.8943298969072168 5:0.057169584152034485 
0.8 1:0.8570723521863591 2:0.8759979787771603 3:0.871959155070578 4:0.8742069785884219 5:0.05696369666507029 
0.8 1:0.8566775244299676 2:0.8477008590197069 3:0.8460306336970668 4:0.8529936558287076 5:0.034615952699587775 
0.8 1:0.854802092587109 2:0.8488125315816071 3:0.8329162078286114 4:0.8288065027755751 5:0.05419316722092175 
-0.8 1:0.8930016780179649 2:0.8647801920161698 3:0.8710581639803785 4:0.8656819984139571 5:0.10551733706914687 
-0.8 1:0.8054486230381998 2:0.893178372915614 3:0.8199018920812893 4:0.8618160190325139 5:0.2566342766859276 
-0.8 1:0.730233935445662 2:0.7789792824658918 3:0.7431174291720896 4:0.7712133227597147 5:0.11888212046208313 
-0.8 1:0.7490869608133456 2:0.7822132390096007 3:0.762939233156472 4:0.7593180015860431 5:0.21030959211898506 
-0.8 1:0.6480110551771793 2:0.7537139969681657 3:0.6608269096005606 4:0.7684377478191915 5:0.3902060217614122 
-0.8 1:0.6111933668936927 2:0.6981303688731682 3:0.5680248273100412 4:0.6699048374306105 5:1.0 
-0.8 1:0.20067120718586556 2:0.22617483577564423 3:0.15346881569726686 4:0.24613402061855655 5:0.31969850910604547 
-0.8 1:0.2508143322475572 2:0.21313794845881737 3:0.19821803984382835 4:0.16812053925456025 5:0.06937513147706369 
0.8 1:0.216168196624223 2:0.20030318342597267 3:0.18650515567123835 4:0.196272799365583 5:0.0629523370467678 
-0.8 1:0.27065442700621867 2:0.22819605861546222 3:0.23545900490539579 4:0.22511895321173708 5:0.07411501949217404 
-0.8 1:0.23373803178363445 2:0.2679130874178878 3:0.23746120732806117 4:0.2521808088818398 5:0.13349565622160656 
-0.8 1:0.1539828249925972 2:0.2206164729661444 3:0.16017619381319453 4:0.2316613798572562 5:0.17226516517995014 
-0.8 1:0.051722436087257025 2:0.15745325922182907 3:0.0326358994894383 4:0.10210150674068212 5:0.38274036245149334 
-0.8 1:0.08084098312111339 2:0.029711975745325903 3:0.023926318950845796 4:0.024682791435368848 5:0.06988089856460615 
-0.8 1:0.018556904550389847 2:0.0037392622536635126 3:0.012513765141655824 4:0.03756938937351329 5:0.08792290856357671 
-0.8 1:0.09475866153390605 2:0.056392117230924556 3:0.02823105415957547 5:0.129637503748495 
-0.8 1:0.07432632514065768 2:0.05548256695300667 3:0.025027530283311648 4:0.06264869151467083 5:0.18014707527873136 
-0.8 1:0.1291086763399471 2:0.11197574532592204 3:0.09240164180598678 4:0.07722045995241893 5:0.11713655263782154 
-0.8 1:0.1298983318527295 2:0.08175846387064149 3:0.05285814395835392 4:0.04421094369548014 5:0.08538064568106238 
-0.8 1:0.16859145197907452 2:0.125821121778676 3:0.12693963359695673 4:0.09892942109436974 5:0.0481463412450822 
-0.8 1:0.15714144704372732 2:0.12854977261243022 3:0.12123335669236175 4:0.13392149088025368 5:0.07047618195082869 
-0.8 1:0.12930609021814254 2:0.10975240020212186 3:0.11342476724396822 4:0.11369944488501217 5:0.050420055231556286 
0.8 1:0.17609317935050864 2:0.1271349166245577 3:0.08389228150966059 4:0.08267248215701856 5:0.0897490410566504 
0.8 1:0.22317638930016792 2:0.1815058110156643 3:0.1686855541095207 4:0.15107057890563055 5:0.05641317142818779 
0.8 1:0.2781561543776528 2:0.2458817584638705 3:0.22985283812193397 4:0.21381839809674855 5:0.056815994772248156 
-0.8 1:0.26798933965057775 2:0.2279939363314806 3:0.26038642506757426 4:0.23195876288659828 5:0.02390980337744995 
-0.8 1:0.25180140163853565 2:0.23769580596260723 3:0.2536790469516466 4:0.23146312450436185 5:0.0259239200977518 
-0.8 1:0.231467772184385 2:0.2410308236483069 3:0.22604865351887063 4:0.2487113402061859 5:0.06692238489322944 
-0.8 1:0.20333629454150648 2:0.20576048509348113 3:0.1983181499649615 4:0.21946867565424255 5:0.06148426974841444 
-0.8 1:0.2169578521370054 2:0.1675593734209195 3:0.18900790869956952 4:0.15939730372720048 
-0.8 1:0.22288026848287473 2:0.17251136937847392 3:0.19271198318149968 4:0.19171292624900904 5:0.0537053033931153 
-0.8 1:0.17313197117757398 2:0.1711975745325922 3:0.17959755731304436 4:0.19419111816019066 5:0.11144779185670231 
-0.8 1:0.12348238081137151 2:0.11237998989388585 3:0.11532685954549989 4:0.12837034099920688 5:0.32204831194639766 
-0.8 1:0.19356430757082235 2:0.1422940879231934 3:0.09260186204825309 4:0.10685963521015097 5:0.27858814893721773 
-0.8 1:0.1181522061000891 2:0.09348155634158667 3:0.09039943938332139 4:0.11825931800158612 5:0.13068036862811797 
0.8 1:0.1969203435001485 2:0.14219302678120257 3:0.1102212433677044 4:0.08039254559873131 5:0.22323126983345493 
-0.8 1:0.2415358799723623 2:0.20656897422940879 3:0.18169986985684233 4:0.18953211736716896 5:0.10418802003374765 
0.8 1:0.1933668936926269 2:0.2043456291056086 3:0.19030934027430166 4:0.20192307692307698 5:0.07338993747286537 
0.8 1:0.23186259994077593 2:0.2245578575037895 3:0.22034237661427564 4:0.20231958762886623 5:0.07828647901066586 
-0.8 1:0.27243115190997946 2:0.23011622031328938 3:0.207027730503554 4:0.1872521808088817 5:0.07752559047188518 
0.8 1:0.18349619978284504 2:0.23466397170287998 3:0.17158874762238452 4:0.2532712133227598 5:0.11349323928154219 
0.8 1:0.26818675352877325 2:0.2641738251642243 3:0.2084292721994193 4:0.19518239492466294 5:0.09512897060732332 
0.8 1:0.3198104826769325 2:0.2679130874178878 3:0.26869556512163356 4:0.25455987311657424 5:0.07838942275414797 
0.8 1:0.3072747014115092 2:0.2846892369883776 3:0.29502452697967796 4:0.2971847739888979 5:0.079512852302583 
0.8 1:0.40795577929128457 2:0.36735725113693757 3:0.30393432776053675 4:0.29292228390166547 5:0.1865161599298192 
0.8 1:0.4254269075115983 2:0.37908034360788273 3:0.39293222544799283 4:0.39016653449643157 5:0.05682942221705017 
0.8 1:0.5302536768334817 2:0.5075290550783221 3:0.419761737911703 4:0.38709357652656634 5:0.15356968620061498 
-0.8 1:0.5096239265620373 2:0.5137948458817583 3:0.5208729602562817 4:0.512390959555908 5:0.06883803368498319 
0.8 1:0.4874148652650281 2:0.44699343102577027 3:0.47802582841125246 4:0.4621332275971452 5:0.021027378559951303 
0.8 1:0.5021221991906031 2:0.46397170288024225 3:0.47332065271798957 4:0.4767049960348933 5:0.046879685618759034 
0.8 1:0.49728555917480993 2:0.4746841839312782 3:0.4965462008209033 4:0.4826526566217288 5:0.055495629366716946 
-0.8 1:0.5036028032770707 2:0.4841839312784232 3:0.47522274501952183 4:0.4528152260111024 5:0.1321350084816693 
-0.8 1:0.3908794788273618 2:0.42698332491157154 3:0.39373310641705866 4:0.43209754163362446 5:0.08598935651208693 
-0.8 1:0.4229592340341528 2:0.38383021728145494 3:0.40064070477525265 4:0.3924464710547188 5:0.0790876498838526 
0.8 1:0.39078077188826404 2:0.3955533097524001 3:0.39293222544799283 4:0.3764869151467092 5:0.09111416461152164 
-0.8 1:0.4149639719672295 2:0.379787771601819 3:0.34067474221643784 4:0.35785091197462354 5:0.14639495486140638 
-0.8 1:0.3229691047280627 2:0.42910560889338034 3:0.3243567924717187 4:0.40513481363996834 5:0.32953187451605254 
-0.8 1:0.27243115190997946 2:0.2776149570490144 3:0.27540294323756126 4:0.2927240285487711 5:0.09721022455163524 
-0.8 1:0.26009278452275214 2:0.22395149065184408 3:0.2481729902893185 4:0.2434575733544806 5:0.029893967944213444 
-0.8 1:0.21261474681670142 2:0.2219302678120261 3:0.1967163880268293 4:0.2484139571768438 5:0.10248721035882609 
-0.8 1:0.1539828249925972 2:0.15543203638201109 3:0.16017619381319453 4:0.1800158604282318 5:0.05797523084015522 
-0.8 1:0.13246471226927267 2:0.09671551288529555 3:0.12303533887276026 4:0.1279738302934182 5:0.050737838091870574 
-0.8 1:0.12131082815121923 2:0.066498231430015 3:0.08299129041946163 4:0.09605471847739887 5:0.10045071456385421 
-0.8 1:0.1836936136610405 2:0.13724103082364816 3:0.10171188307137878 4:0.09486518636003166 5:0.14146708261906787 
-0.5480828342374009 1:0.1933668936926269 2:0.13976755937342078 3:0.1618780658724599 4:0.15721649484536096 5:0.08564919457710263 
-0.8 1:0.21557595498963608 2:0.17776654876200076 3:0.19261187306036653 4:0.18606264869151506 5:0.07737341276412903 
-0.8 1:0.20481689862797353 2:0.15462354724608401 3:0.17519271198318154 4:0.18348532910388574 5:0.13592602373077078 
-0.8 1:0.0945612476557106 2:0.09418898433552293 3:0.08369206126739429 4:0.1201427438540841 5:0.11343505368740013 
-0.8 1:0.14519790741289149 2:0.09287518948964123 3:0.09079987986785458 4:0.0710745440126885 5:0.15074992279219238 
-0.8 1:0.05290691935643089 2:0.07660434562910545 3:0.05766342977274994 4:0.08564631245043602 5:0.18166437654135878 
-0.8 1:0.012831902082716527 3:0.010211232355590969 4:0.029936558287074134 5:0.1985829569918943 
-0.8 2:0.03425972713491649 4:0.0010904044409200402 5:0.8185057044261334 
-0.8 1:0.2862501233836739 2:0.26659929257200604 3:0.27430173190509544 4:0.26001189532117386 5:0.3367782188942052 
-0.8 1:0.30628763202053133 2:0.2886306215260233 3:0.2867153869256181 4:0.25793021411578154 5:0.07215461255108024 
-0.8 1:0.25170269469943735 2:0.2548762001010609 3:0.2309540494543998 4:0.2813243457573354 5:0.09155279447505404 
0.8 1:0.18310137202645357 2:0.16280949974734674 3:0.18039843828211016 4:0.19091990483743052 5:0.0770153475694087 
-0.8 1:0.22455828644753725 2:0.1897928246589184 3:0.18740614676143788 4:0.16544409199048374 5:0.1294092371868608 
-0.8 1:0.09308064356924298 2:0.16574027286508317 3:0.09840824907398123 4:0.1577121332275974 5:0.1440093455015822 
0.8 1:0.1969203435001485 2:0.1766548762001007 3:0.15116628291120257 4:0.18854084060269666 5:0.17142818778729138 
0.8 1:0.23294837627085205 2:0.22051541182415357 3:0.21773951346481132 4:0.2117367168913562 5:0.08378725556455692 
0.8 1:0.25140657388214416 2:0.2302172814552802 3:0.19491440584643138 4:0.19329896907216496 5:0.12756520143405112 
0.8 1:0.29236995360773865 2:0.2764022233451235 3:0.2741015116628291 4:0.2422680412371134 5:0.09704014358414308 
-0.8 1:0.3661040371138094 2:0.32187973724103053 3:0.3055360896986684 4:0.28172085646312467 5:0.09283287754617922 
0.12335443987982779 1:0.31763893001678023 2:0.34047498736735726 3:0.30173190509560505 4:0.3543814432989691 5:0.08678605157033967 
0.8 1:0.3457704076596588 2:0.3191510864072763 3:0.32705976574231677 4:0.29768041237113435 5:0.038116039977978994 
-0.8 1:0.38594413187247084 2:0.3406771096513389 3:0.3563920312343581 4:0.3494250594766059 5:0.034754702962541906 
-0.8 1:0.35495015299575594 2:0.35108640727640233 3:0.35569126038642485 4:0.35477795400475837 5:0.0681935163344866 
0.8 1:0.3209949659461064 2:0.28408287013643213 3:0.27340074081489646 4:0.3118556701030932 5:0.09131110046861782 
0.8 1:0.37153291876418953 2:0.3208691258211218 3:0.3158474321753931 4:0.3024385408406026 5:0.07050751265536673 
-0.8 1:0.3648208469055378 2:0.3336028297119757 3:0.3454800280308339 4:0.3518041237113403 5:0.050236546819262116 
-0.8 1:0.3563320501431253 2:0.3368367862556846 3:0.3503854239663631 4:0.3456582077716099 5:0.01838664774888888 
0.8 1:0.35731911953410367 2:0.33431025770591194 3:0.3367704474922414 4:0.3594369547977795 5:0.09507526082811528 
-0.8 1:0.4302635475273915 2:0.38524507326932805 3:0.374411853038342 4:0.34674861221252995 5:0.06333278131615815 
-0.8 1:0.39255749679202484 2:0.3943405760485092 3:0.3559915907498249 4:0.4090007930214115 5:0.050505095715302366 
0.8 1:0.3756786102062975 2:0.375745325922183 3:0.37291020122134355 4:0.3636003172085647 5:0.03754313566642647 
0.8 1:0.4351988944822824 2:0.39484588175846386 3:0.37100810891981184 4:0.3722244250594767 5:0.07142953053177158 
-0.8 1:0.4264139769025767 2:0.42789287518948943 3:0.416157773550906 4:0.43982950039651075 5:0.24045868151443675 
0.8 1:0.40509327805744766 2:0.3706922688226378 3:0.397537291020122 4:0.3771808088818399 5:0.04758238856339768 
-0.8 1:0.42799328792814145 2:0.379787771601819 3:0.375613174491941 4:0.36726804123711354 5:0.11736481919945574 
0.8 1:0.3619583456717009 2:0.39474482061647304 3:0.3613975372910204 4:0.40454004758128476 5:0.07815220456264574 
0.8 1:0.45908597374395466 2:0.41344113188479004 3:0.3503854239663631 4:0.3661776367961935 5:0.11129561414894618 
-0.8 1:0.4457605369657489 2:0.42920667003537116 3:0.44839323255581165 4:0.4385408406026964 5:0.0857342350608487 
0.8 1:0.449511400651466 2:0.4304194037392621 3:0.42436680348383216 4:0.43189928628072954 5:0.053996231363825566 
0.8 1:0.49254762609811503 2:0.45032844871147054 3:0.44869356291921114 4:0.43992862807295796 5:0.10220970983291783 
0.8 1:0.5647023985786204 2:0.5188479029813035 3:0.45229752728000816 4:0.4242664551942904 5:0.14022728188234873 
0.8 1:0.5936235317342813 2:0.55977766548762 3:0.5510061067173894 4:0.5490681998413957 5:0.06451887227366923 
-0.8 1:0.6109959530154974 2:0.570085901970692 3:0.5856442086294925 4:0.5891157811260905 5:0.026550534188512373 
-0.8 1:0.5852334419109665 2:0.5958564931783727 3:0.596456101711883 4:0.5848532910388581 5:0.10973803055191274 
0.8 1:0.548613167505676 2:0.5263264274886306 3:0.5321854039443391 4:0.5494647105471848 5:0.03635256889398137 
0.8 1:0.5661830026650875 2:0.5194542698332489 3:0.5373911302432678 4:0.516356066613799 5:0.01905354417405549 
0.8 1:0.5488105813838715 2:0.5191510864072765 3:0.5486034638101914 4:0.5260705789056304 5:0.03307179654735636 
-0.8 1:0.5694403316553154 2:0.5684689236988378 3:0.5740314345780356 4:0.5573949246629661 5:0.06480084861451149 
-0.8 1:0.5191984996545259 2:0.5451237998989389 3:0.5060566623285616 4:0.5440126883425852 5:0.09582272192209397 
-0.8 1:0.4817885697364525 2:0.46841839312784206 3:0.4876364000400439 4:0.46659397303727196 5:0.01986814249204424 
0.8 1:0.4796170170763008 2:0.4412329459322888 3:0.46851536690359413 4:0.4425059476605867 5:0.031214333349744654 
-0.3922626909819515 1:0.5140657388214396 2:0.4664982314300149 3:0.48283111422564845 4:0.4555908009516261 5:0.02046790169320079 
-0.8 1:0.49629848978383206 2:0.47235977766548776 3:0.5007508259084993 4:0.4840404440919904 5:0.01327974290919019 
0.8 1:0.4981739216266906 2:0.45871652349671543 3:0.4906397036740414 4:0.4775971451229184 5:0.008951629868008218 
-0.8 1:0.5041950449116577 2:0.47882769075290554 3:0.4982480728801681 4:0.47164948453608235 5:0.04348701789878392 
-0.8 1:0.4895864179251804 2:0.45053057099545213 3:0.4436880568625488 4:0.4627279936558288 5:0.10665419406238391 
-0.8 1:0.42838811568453294 2:0.44133400707427956 3:0.427570327360096 4:0.45856463124504354 5:0.08533588753172233 
-0.8 1:0.4264139769025767 2:0.41738251642243573 3:0.42186405045550096 4:0.38986915146708945 5:0.15357863783048298 
-0.8 1:0.34044023294837633 2:0.3121778676099039 3:0.3298628491340474 4:0.3208762886597939 5:0.01799277603469652 
-0.8 1:0.3363932484453661 2:0.3027791814047497 3:0.3291620782861147 4:0.3110626486915146 5:0.04273508098987123 
0.8 1:0.27183891027539253 2:0.2718544719555329 3:0.26689358294123566 4:0.2958961141950835 5:0.053356189828262984 
-0.8 1:0.30411607936037904 2:0.25730166750884265 3:0.25678246070677724 4:0.24286280729579698 5:0.06363713673167042 
0.8 1:0.26088244003553457 2:0.2562910560889334 3:0.2622885173691059 4:0.2670499603489294 5:0.03505010674818618 
-0.8 1:0.285263053992696 2:0.24386053562405252 3:0.2608869756732406 4:0.251486915146709 5:0.05989983126177699 
0.8 1:0.24123975915506857 2:0.2603335017685699 3:0.24526979677645414 4:0.264670896114195 5:0.12026962309162441 
0.8 1:0.2891126246175108 2:0.25679636179888804 3:0.20612673941335447 4:0.1993457573354482 5:0.26531288184296153 
0.8 1:0.3514954101273321 2:0.30581101566447694 3:0.27890679747722513 4:0.25812846946867585 5:0.16462942490253912 
0.8 1:0.3657092093574179 2:0.3265285497726125 3:0.34537991790970074 4:0.3524980174464711 5:0.10989020825966887 
0.8 1:0.3709406771296026 2:0.32824658918645744 3:0.35539093002302535 4:0.3276169706582079 5:0.06131866459585629 
-0.8 1:0.39334715230480727 2:0.3476503284487113 3:0.3253578936830514 4:0.331681205392546 5:0.19775045541416952 
0.8 1:0.32474582963182347 2:0.3481556341586659 3:0.3079387326058664 4:0.3673671689135607 5:0.7310214257260891 
0.8 1:0.7460270457013132 2:0.7521980798383023 3:0.7460206226849534 4:0.7103489294210946 5:0.24952220675579506 
-0.8 1:0.736847300365216 2:0.7095502779181404 3:0.7269996996696367 4:0.705689928628073 5:0.052523688250538214 
0.8 1:0.6993386635080449 2:0.7327943405760485 3:0.713284613074382 4:0.7324544012688342 5:0.0615469311574905 
-0.8 1:0.7274701411509233 2:0.7204648812531579 3:0.7280008008809694 4:0.7217486122125298 5:0.03422208098539541 
-0.8 1:0.6909485736847301 2:0.6999494694290045 3:0.6815497046751426 4:0.710844567803331 5:0.0847540315903018 
0.8 1:0.6814727075313396 2:0.6724608388074782 3:0.6745419961958155 4:0.6492862807295797 5:0.0949857445294352 
-0.8 1:0.7029908202546642 2:0.6963112683173318 3:0.6907598358194015 4:0.6834853291038857 5:0.08905976555681376 
-0.8 1:0.6842365018260789 2:0.6586154623547242 3:0.6547201922114324 4:0.6690126883425853 5:0.11892687861142318 
-0.8 1:0.6182015595696377 2:0.6604345629105606 3:0.6142757032736011 4:0.6777359238699445 5:0.1833338555117423 
-0.8 1:0.49659461060112525 2:0.5718039413845375 3:0.5076584242666933 4:0.5873314829500397 5:0.3037735595708589 
-0.8 1:0.3942355147566874 2:0.39979787771601827 3:0.3869256181799978 4:0.4061260904044412 5:0.0515255815202553 
0.8 1:0.3978876715033067 2:0.40202122283981784 3:0.39193112423666016 4:0.4264472640761305 5:0.0739538901545499 
0.8 1:0.4807027934063769 2:0.43779686710459825 3:0.374411853038342 4:0.36538461538461553 5:0.12343402424996532 
-0.8 1:0.5241338466094169 2:0.4763011622031329 3:0.4857343077385122 4:0.46193497224425084 5:0.027530737659059272 
-0.8 1:0.4977790938702991 2:0.4838807478524507 3:0.4913404745219741 4:0.5009912767644729 5:0.01926838329088769 
-0.8 1:0.48168986279735476 2:0.46831733198585124 3:0.4771248373210535 4:0.4549960348929425 5:0.05225513935449797 
-0.8 1:0.4092389694995562 2:0.43233956543708923 3:0.4114525978576437 4:0.45043616177636797 5:0.0742895762746002 
0.8 1:0.4005527588589482 2:0.3694795351187469 3:0.382821103213535 4:0.37499999999999983 5:0.05180755786109756 
0.8 1:0.4094363833777516 2:0.3648307225871649 3:0.3931324456902592 4:0.3729183187946075 5:0.04038975396445308 
-0.8 1:0.4351988944822824 2:0.38635674583122753 3:0.3817198918810692 4:0.38402061855670117 5:0.05306973767248672 
0.8 1:0.39413680781758964 2:0.3813036887316823 3:0.3778155971568727 4:0.4013679619349724 5:0.03643313356279344 
-0.8 1:0.4258217352679898 2:0.3972713491662456 3:0.38782660927019735 4:0.36885408406027 5:0.04980686858559772 
0.8 1:0.3842661139078078 2:0.3752400202122284 3:0.3745119631594757 4:0.3993854084060272 5:0.04883114092998483 
0.8 1:0.42799328792814145 2:0.38201111672561916 3:0.36460106116728425 4:0.3692505947660587 5:0.20321094963365455 
-0.8 1:0.5020234922515054 2:0.48994441637190467 3:0.42026228851736935 4:0.39700634417129277 5:0.17038532290766842 
-0.8 1:0.43036225446648924 2:0.45811015664476995 3:0.410451496646311 4:0.4701625693893736 5:0.21876440652931883 
-0.8 1:0.4258217352679898 2:0.41354219302678086 3:0.4127540294323758 4:0.3833267248215704 5:0.06312241801425994 
0.8 1:0.39936827558977434 2:0.3867609903991914 3:0.3956351987185903 4:0.4031522601110232 5:0.04189362778227846 
0.8 1:0.4209850952521966 2:0.3929257200606367 3:0.39573530883972347 4:0.3897700237906423 5:0.0559924448243914 
0.8 1:0.5048859934853424 2:0.456088933804952 3:0.40704775252778086 4:0.38620142743854124 5:0.12364438755186351 
-0.8 1:0.5093278057447441 2:0.5083375442142498 3:0.4993492842126339 4:0.4782910388580492 5:0.1308280705209401 
0.8 1:0.42690751159806534 2:0.45558362809499736 3:0.43547902692962265 4:0.4506344171292629 5:0.09621211782135232 
-0.8 1:0.46560063172441035 2:0.43031834259727125 3:0.41695865451997177 4:0.40196272799365595 5:0.07601724083912578 
-0.8 1:0.40075017273714364 2:0.4088933804951994 3:0.40975072579837835 4:0.4234734337827124 5:0.16695684866822127 
-0.8 1:0.23393544566183047 2:0.37918140474987355 3:0.22925217739513445 4:0.3630055511498811 5:0.28121097648854415 
-0.8 1:0.22159707827460315 2:0.19282465891864564 3:0.19861848032836096 4:0.19657018239492452 5:0.02655501000344638 
0.8 1:0.21073931497384288 2:0.1768569984840829 3:0.21093202522775048 4:0.20063441712926258 5:0.03873370243887156 
0.8 1:0.27825486131675053 2:0.22415361293582628 3:0.23025327860646713 4:0.21699048374306093 5:0.030865219784892334 
-0.8 1:0.2964169381107495 2:0.24487114704396123 3:0.23595955551106212 4:0.2537668517049963 5:0.12292378134748884 
-0.8 1:0.2568354555325243 2:0.24709449216776141 3:0.2622885173691059 4:0.26595955590800935 5:0.03812051579291299 
0.8 1:0.24775441713552485 2:0.23648307225871631 3:0.23445790369406366 4:0.2300753370341003 5:0.05425582862999781 
-0.8 1:0.296219524232554 2:0.24466902475997962 3:0.23405746320953047 4:0.2366177636796194 5:0.14986371143525956 
-0.8 1:0.20787681374000594 2:0.22162708438605366 3:0.20923015316848514 4:0.25069389373513107 5:0.06888726764925723 
-0.8 1:0.2038298292369957 2:0.18312278928751902 3:0.19030934027430166 4:0.17803330689928665 5:0.04757791274846368 
-0.8 1:0.1757970585332149 2:0.15704901465386523 3:0.17539293222544783 4:0.17902458366375895 5:0.08481669299937786 
-0.8 1:0.12535781265423004 2:0.14188984335522956 3:0.1276404044448894 4:0.14115781126090415 5:0.11556106578105209 
-0.8 1:0.11213108281512203 2:0.0867104598281959 3:0.09820802883171492 4:0.09724425059476609 5:0.03448167825156766 
-0.8 1:0.08291382884216794 2:0.085497726124305 3:0.07558314145560129 4:0.10656225218080889 5:0.09502155104890724 
-0.8 1:0.13443885105122894 2:0.08873168266801389 3:0.06387025728301128 4:0.0816812053925457 5:0.12448584075945628 
-0.8 1:0.17865955976705183 2:0.14370894391106592 3:0.12673941335469044 4:0.10576923076923093 5:0.08098987123080435 
-0.8 1:0.17964662915803026 2:0.1534108135421931 3:0.16768445289818804 4:0.17535685963521014 5:0.08934174189765602 
-0.8 1:0.09771986970684073 2:0.1305709954522482 3:0.10171188307137878 4:0.1577121332275974 5:0.09917510730766305 
-0.8 1:0.06090218142335422 2:0.03294593228903478 3:0.0038041846030633245 4:0.0524385408406029 5:0.11409747429763274 
-0.8 1:0.06336985490079969 2:0.05517938352703366 3:0.03233556912603883 4:0.013580491673275224 5:0.10448342381939192 
0.5919203440071147 1:0.11015694403316578 2:0.060434562910560506 3:0.026829512463710153 4:0.05709754163362402 5:0.24623248277930204 
-0.8 1:0.24805053795281803 2:0.1959575543203637 3:0.13054359795775375 4:0.10339016653449651 5:0.1418161961839202 
0.8 1:0.21685914519790767 2:0.20020212228398185 3:0.21023125437981782 4:0.22898493259318026 5:0.04503117405101534 
-0.8 1:0.2568354555325243 2:0.23112683173319865 3:0.20332365602162383 4:0.20876288659793818 5:0.11105839595744395 
-0.8 1:0.19474879083999622 2:0.20272865083375446 3:0.20022024226649318 4:0.20757335448057096 5:0.12598523876234766 
-0.8 1:0.1352285065640119 2:0.14290045477513882 3:0.1411552707978779 4:0.17030134813639977 5:0.1152432829207378 
-0.8 1:0.11884315467377377 2:0.11541182415361254 3:0.06457102813094394 4:0.13312846946867574 5:0.22358933502817527 
-0.8 1:0.19346560063172463 2:0.1411824153612933 3:0.040044048453298633 4:0.09545995241871526 5:0.5803341643429727 
0.7376343336285041 1:0.3143816010265524 2:0.26346639717028797 3:0.18730603664030415 4:0.16732751784298172 5:0.6564409214807786 
0.6143435620799904 1:0.4468463132958251 2:0.47478524507326897 3:0.38992892181399536 4:0.49762093576526556 5:0.34821392605058565 
0.8 1:0.48030796564998546 2:0.43163213744315293 3:0.39433376714385815 4:0.37301744647105467 5:0.09358033864015791 
-0.8 1:0.4698450301056166 2:0.4757958564931783 3:0.4498948843728101 4:0.42000396510705795 5:0.0983694606195423 
-0.8 1:0.3905833580100686 2:0.4116220313289537 3:0.3835218740614677 4:0.435368754956384 5:0.06649270665956504 
-0.8 1:0.3490277366498866 2:0.3864578069732189 3:0.3579937931724897 4:0.3762886597938148 5:0.12466934917175045 
-0.8 1:0.3629454150626793 2:0.3393633148054572 3:0.30743818200020007 4:0.36409595559080116 5:0.12402930763618786 
0.8 1:0.3188234132859541 2:0.28155634158665954 3:0.21523676043648016 4:0.2887589214908802 5:0.17387645855619163 
-0.8 1:0.32839798637844275 2:0.30378979282465896 3:0.2731004104514964 4:0.28707375099127713 5:0.12441422772051221 
0.8 1:0.2921725397295432 2:0.2635674583122788 3:0.2552808088897788 4:0.24563838223632067 5:0.25842012684459525 
0.8 1:0.45602605863192225 2:0.4101061141990903 3:0.3253578936830514 4:0.2989690721649487 5:0.20646486709067555 
-0.8 1:0.43500148060408694 2:0.4220313289540171 3:0.38542396636299936 4:0.4446867565424268 5:0.15856917148189756 
-0.8 1:0.3699536077386242 2:0.379787771601819 3:0.3447792571829012 4:0.39770023790642356 5:0.22664631662810006 
0.8 1:0.3611686901589185 2:0.34886306215260215 3:0.29162078286114723 4:0.30541237113402064 5:0.2490164396682526 
0.8 1:0.5009377159214292 2:0.45497726124305193 3:0.3164480929021926 4:0.3573552735923871 5:0.4932706122467248 
0.8 1:0.5667752442996744 2:0.5263264274886306 3:0.4450895985584141 4:0.46262886597938163 5:0.21866593860077074 
-0.8 1:0.607936037903465 2:0.5849418898433553 3:0.5644208629492442 4:0.5453013481363996 5:0.13256021090039968 
0.8 1:0.5299575560161879 2:0.5458312278928752 3:0.5405946541195316 4:0.5555114988104681 5:0.09337892696812772 
0.8 1:0.5725002467673478 2:0.5646286003031835 3:0.5011512663930324 4:0.48988897700237927 5:0.12459326031787238 
0.8 1:0.5493041160793607 2:0.5718039413845375 3:0.521373510861948 4:0.5089214908802541 5:0.11068690331792161 
0.8 1:0.5799032671996841 2:0.5414855987872662 3:0.46931624787265996 4:0.5107057890563049 5:0.19033850588345874 
0.8 1:0.7178955680584347 2:0.6789287518948965 3:0.5946541195314845 4:0.5596748612212533 5:0.11668001951455312 
0.8 1:0.6872964169381107 2:0.6927741283476505 3:0.6491140254279706 4:0.6716891356066613 5:0.13122641805006646 
0.8 1:0.7471128220313887 2:0.7183425972713491 3:0.6467113825207732 4:0.6433386201427442 5:0.15037395433773604 
0.8 1:0.854802092587109 2:0.8329459322890346 3:0.7448193012313543 4:0.7302735923869946 5:0.17457020987096225 
0.8 1:0.8512486427795874 2:0.8345629105608893 3:0.8231054159575537 4:0.8130452022204604 5:0.04675883861554093 
0.8 1:0.931497384266114 2:0.895199595755432 3:0.8551406547201925 4:0.8552735923869947 5:0.050706507387332546 
0.8 1:0.9171848780969304 2:0.895199595755432 3:0.911002102312544 4:0.9101903251387787 5:0.043401977415037846 
0.8 1:0.9013917678412797 2:0.8936836786255686 3:0.9098007808589449 4:0.8732157018239496 5:0.035323131459160426 
0.8 1:0.8725693416247166 2:0.890853966649823 3:0.8764641105215739 4:0.8603291038858052 5:0.1292794385537747 
0.8 1:0.9102753923600831 2:0.9367357251136939 3:0.8417258984883371 4:0.838223632038065 5:0.2378985153721864 
0.8 1:0.8093969006021123 2:0.8159676604345631 3:0.7969766743417762 4:0.8295995241871531 5:0.031456027356180874 
0.8 1:0.8547033856480114 2:0.8325416877210713 3:0.8337170887976773 4:0.8115582870737511 5:0.03277639276171209 
0.8 1:0.8714835652946404 2:0.831834259727135 3:0.8309140054059466 4:0.828509119746233 5:0.026496824409304325 
0.8 1:0.890139176784128 2:0.8546740778170794 3:0.8562418660526577 4:0.8436756542426648 5:0.034284742394471476 
-0.8 1:0.8849077090119438 2:0.8581101566447699 3:0.8499349284212633 4:0.8446669310071376 5:0.06323431338761006 
-0.8 1:0.7869904254269077 2:0.831834259727135 3:0.7998798678546399 4:0.84674861221253 5:0.10448789963432592 
-0.8 1:0.7847201658276577 2:0.7605861546235473 3:0.7854640104114525 4:0.762787470261697 5:0.05328905260425292 
0.8 1:0.7337873852531835 2:0.7128852956038401 3:0.7055761337471221 4:0.7219468675654241 5:0.05749184282728278 
-0.8 1:0.752146875925378 2:0.7625063163213744 3:0.7316047652417659 4:0.7449444885011899 5:0.1059962492670853 
0.8 1:0.7187839305103153 2:0.7091460333501766 3:0.7157873661027131 4:0.7254163362410786 5:0.07121469141493937 
-0.8 1:0.7448425624321393 2:0.751187468418393 3:0.7325057563319655 4:0.722145122918319 5:0.09436360625360862 
-0.8 1:0.6771296022110357 2:0.7140980293077309 3:0.6765441986184803 4:0.7074742268041238 5:0.09947946272317532 
0.8 1:0.6000394827756393 2:0.6324406265790803 3:0.5935529081990192 4:0.6426447264076128 5:0.09537514042869355 
0.22509554104350404 1:0.6716020136215578 2:0.6439615967660433 3:0.6281910101111223 4:0.5928826328310864 5:0.12067692225061878 
0.8 1:0.635672687789952 2:0.6067710965133903 3:0.6044649114025429 4:0.623017446471055 5:0.0885763775439413 
0.8 1:0.6735761524035141 2:0.6480040424456798 3:0.6216838522374615 4:0.5990285487708169 5:0.11880155579327106 
0.8 1:0.699634784325338 2:0.6600303183425974 3:0.6552207428170987 4:0.6611816019032513 5:0.15594634393057116 
-0.8 1:0.7397098015990524 2:0.6965133906013135 3:0.6942636900590653 4:0.6978588421887395 5:0.08980275083585844 
0.8 1:0.6248149244891917 2:0.67488630621526 3:0.6256882570827912 4:0.6963719270420302 5:0.11911038702371735 
0.8 1:0.7109860823215874 2:0.6804446690247599 3:0.6238862749023927 4:0.6175654242664553 5:0.22709837393643448 
0.8 1:0.7643865363735071 2:0.73966649823143 3:0.7232956251877066 4:0.7418715305313247 5:0.07646034651759219 
-0.8 1:0.7621162767742575 2:0.7537139969681657 3:0.7543297627390132 4:0.7327517842981762 5:0.08664730130738554 
-0.8 1:0.7361563517915314 2:0.7213744315310764 3:0.685654219641606 4:0.7348334655035685 5:0.12607027924609374 
-0.8 1:0.621853716316257 2:0.6508337544214248 3:0.6346981679847831 4:0.6704996034892942 5:0.08154487228262086 
0.8 1:0.6080347448425626 2:0.5957554320363819 3:0.5378916808489341 4:0.5898096748612213 5:0.13076540911186404 
0.8 1:0.6434705359786793 2:0.6425467407781708 3:0.6008609470417459 4:0.6046788263283109 5:0.14766161048772955 
