svm_type epsilon_svr
kernel_type rbf
gamma 1.0E-5
nr_class 2
total_sv 200
rho -326.1670419311523
SV
64.0 1:0.9501529957556021 
64.0 1:0.8909288322969109 
64.0 1:0.9056361662224854 
64.0 1:0.8459184680683056 
64.0 1:0.8498667456322182 
64.0 1:0.8656598558878693 
64.0 1:0.8769124469450206 
64.0 1:0.8633895962886193 
64.0 1:0.8164050932780578 
64.0 1:0.8408844141743164 
64.0 1:0.8959628861908996 
64.0 1:0.8843154673773569 
64.0 1:0.9245878985292667 
64.0 1:0.9070180633698554 
64.0 1:0.883130984108183 
64.0 1:0.844635277860034 
64.0 1:0.8558878689171853 
64.0 1:0.8486822623630443 
64.0 1:0.8599348534201955 
64.0 1:0.8332839798637846 
64.0 1:0.8509525219622943 
64.0 1:0.918468068305202 
64.0 1:0.9278452275194946 
64.0 1:0.9981245681571415 
64.0 1:0.9990129306090222 
64.0 1:1.0 
64.0 1:0.982627578718784 
64.0 1:0.9520284275984606 
64.0 1:0.9831211134142732 
64.0 1:0.9838120619879579 
64.0 1:0.9166913434014411 
64.0 1:0.9303129009969401 
64.0 1:0.9775935248247953 
64.0 1:0.9300167801796468 
64.0 1:0.8793801204224659 
64.0 1:0.8822426216563024 
64.0 1:0.9211331556608434 
64.0 1:0.9279439344585929 
64.0 1:0.8952719376172149 
64.0 1:0.8570723521863591 
64.0 1:0.8566775244299676 
64.0 1:0.854802092587109 
64.0 1:0.8930016780179649 
64.0 1:0.8054486230381998 
64.0 1:0.730233935445662 
64.0 1:0.7490869608133456 
64.0 1:0.6480110551771793 
64.0 1:0.6111933668936927 
64.0 1:0.20067120718586556 
-64.0 1:0.2508143322475572 
-64.0 1:0.216168196624223 
-64.0 1:0.27065442700621867 
-64.0 1:0.23373803178363445 
-64.0 1:0.1539828249925972 
-64.0 1:0.051722436087257025 
-64.0 1:0.08084098312111339 
-64.0 1:0.018556904550389847 
-64.0 1:0.09475866153390605 
-64.0 1:0.07432632514065768 
-64.0 1:0.1291086763399471 
-64.0 1:0.1298983318527295 
-64.0 1:0.16859145197907452 
-64.0 1:0.15714144704372732 
-64.0 1:0.12930609021814254 
-64.0 1:0.17609317935050864 
-64.0 1:0.22317638930016792 
-64.0 1:0.2781561543776528 
-64.0 1:0.26798933965057775 
-64.0 1:0.25180140163853565 
-64.0 1:0.231467772184385 
-64.0 1:0.20333629454150648 
-64.0 1:0.2169578521370054 
-64.0 1:0.22288026848287473 
-64.0 1:0.17313197117757398 
-64.0 1:0.12348238081137151 
-64.0 1:0.19356430757082235 
-64.0 1:0.1181522061000891 
-64.0 1:0.1969203435001485 
-64.0 1:0.2415358799723623 
-64.0 1:0.1933668936926269 
-64.0 1:0.23186259994077593 
-64.0 1:0.27243115190997946 
-64.0 1:0.18349619978284504 
-64.0 1:0.26818675352877325 
-64.0 1:0.3198104826769325 
-64.0 1:0.3072747014115092 
-64.0 1:0.40795577929128457 
-64.0 1:0.4254269075115983 
64.0 1:0.5302536768334817 
64.0 1:0.5096239265620373 
64.0 1:0.4874148652650281 
64.0 1:0.5021221991906031 
64.0 1:0.49728555917480993 
64.0 1:0.5036028032770707 
64.0 1:0.3908794788273618 
-64.0 1:0.4229592340341528 
64.0 1:0.39078077188826404 
-64.0 1:0.4149639719672295 
64.0 1:0.3229691047280627 
-64.0 1:0.27243115190997946 
-64.0 1:0.26009278452275214 
-64.0 1:0.21261474681670142 
-64.0 1:0.1539828249925972 
-64.0 1:0.13246471226927267 
-64.0 1:0.12131082815121923 
-64.0 1:0.1836936136610405 
-64.0 1:0.1933668936926269 
-64.0 1:0.21557595498963608 
-64.0 1:0.20481689862797353 
-64.0 1:0.0945612476557106 
-64.0 1:0.14519790741289149 
-64.0 1:0.05290691935643089 
-64.0 1:0.012831902082716527 
-64.0 
-64.0 1:0.2862501233836739 
-64.0 1:0.30628763202053133 
-64.0 1:0.25170269469943735 
-64.0 1:0.18310137202645357 
-64.0 1:0.22455828644753725 
-64.0 1:0.09308064356924298 
-64.0 1:0.1969203435001485 
-64.0 1:0.23294837627085205 
-64.0 1:0.25140657388214416 
-64.0 1:0.29236995360773865 
-64.0 1:0.3661040371138094 
-64.0 1:0.31763893001678023 
-64.0 1:0.3457704076596588 
-64.0 1:0.38594413187247084 
-64.0 1:0.35495015299575594 
-64.0 1:0.3209949659461064 
-64.0 1:0.37153291876418953 
-64.0 1:0.3648208469055378 
-64.0 1:0.3563320501431253 
-64.0 1:0.35731911953410367 
-64.0 1:0.4302635475273915 
64.0 1:0.39255749679202484 
-64.0 1:0.3756786102062975 
-64.0 1:0.4351988944822824 
64.0 1:0.4264139769025767 
64.0 1:0.40509327805744766 
-64.0 1:0.42799328792814145 
64.0 1:0.3619583456717009 
-64.0 1:0.45908597374395466 
64.0 1:0.4457605369657489 
64.0 1:0.449511400651466 
64.0 1:0.49254762609811503 
64.0 1:0.5647023985786204 
64.0 1:0.5936235317342813 
64.0 1:0.6109959530154974 
64.0 1:0.5852334419109665 
64.0 1:0.5738821439147176 
64.0 1:0.548613167505676 
64.0 1:0.5661830026650875 
64.0 1:0.5488105813838715 
64.0 1:0.5694403316553154 
64.0 1:0.5191984996545259 
64.0 1:0.4817885697364525 
64.0 1:0.4796170170763008 
64.0 1:0.5140657388214396 
64.0 1:0.49629848978383206 
64.0 1:0.4981739216266906 
64.0 1:0.5041950449116577 
64.0 1:0.4895864179251804 
64.0 1:0.42838811568453294 
64.0 1:0.4264139769025767 
64.0 1:0.34044023294837633 
-64.0 1:0.3363932484453661 
-64.0 1:0.27183891027539253 
-64.0 1:0.30411607936037904 
-64.0 1:0.26088244003553457 
-64.0 1:0.285263053992696 
-64.0 1:0.24123975915506857 
-64.0 1:0.2891126246175108 
-64.0 1:0.3514954101273321 
-64.0 1:0.3657092093574179 
-64.0 1:0.3709406771296026 
-64.0 1:0.39334715230480727 
-64.0 1:0.32474582963182347 
-64.0 1:0.7460270457013132 
64.0 1:0.736847300365216 
64.0 1:0.6993386635080449 
64.0 1:0.7274701411509233 
64.0 1:0.6909485736847301 
64.0 1:0.6814727075313396 
64.0 1:0.7029908202546642 
64.0 1:0.6842365018260789 
64.0 1:0.6182015595696377 
64.0 1:0.49659461060112525 
64.0 1:0.3942355147566874 
-64.0 1:0.3978876715033067 
-64.0 1:0.4807027934063769 
64.0 1:0.5241338466094169 
64.0 1:0.4977790938702991 
64.0 1:0.48168986279735476 
64.0 1:0.4092389694995562 
-64.0 1:0.4005527588589482 
-64.0 1:0.4094363833777516 
-64.0 1:0.4351988944822824 
64.0 1:0.39413680781758964 
-64.0 1:0.4258217352679898 
