svm_type epsilon_svr
kernel_type rbf
gamma 1.0
nr_class 2
total_sv 21
rho -125.29518716704848
SV
0.9801026504477431 1:0.9268292682926805 
1.0 1:0.7804878048780417 
1.0 1:0.6731707317073111 
1.0 1:0.45853658536585 
-1.0 1:0.6439024390243834 
0.01989734955225694 1:0.47804878048779725 
-1.0 1:0.34146341463413893 
1.0 1:0.1658536585365861 
-1.0 1:0.3746341463414617 
1.0 1:0.20097560975609943 
-1.0 1:0.048780487804875004 
-1.0 1:0.15609756097560556 
-1.0 1:0.34146341463413893 
-1.0 1:0.5092682926829294 
-1.0 1:0.687804878048775 
1.0 1:0.5629268292682877 
1.0 1:0.4790243902438994 
1.0 1:0.2448780487804911 
-1.0 1:0.48780487804877776 
-1.0 1:0.7024390243902389 
1.0 1:0.4682926829268306 
