svm_type epsilon_svr
kernel_type rbf
gamma 1.0
nr_class 2
total_sv 65
rho -422.30594995354545
SV
0.4616026540212306 1:1.0 
1.0 1:0.9842778793418625 
1.0 1:1.0 
1.0 1:0.9597806215722072 
1.0 1:0.9049360146252323 
1.0 1:0.8738574040219389 
-1.0 1:0.9021937842778752 
1.0 1:0.8226691042047491 
1.0 1:0.7513711151736734 
-1.0 1:0.7559414990859282 
-1.0 1:0.8117001828153624 
1.0 1:0.7623400365630704 
-1.0 1:0.7970749542961594 
1.0 1:0.7550274223034793 
1.0 1:0.6800731261425976 
-1.0 1:0.7184643510054821 
1.0 1:0.6663619744058539 
1.0 1:0.606946983546624 
-1.0 1:0.612614259597803 
1.0 1:0.5758683729433306 
1.0 1:0.5393053016453438 
-1.0 1:0.5848263254113338 
1.0 1:0.49177330895796 
1.0 1:0.46288848263254595 
1.0 1:0.39122486288848857 
-1.0 1:0.4460694698354739 
-1.0 1:0.5100548446069482 
-1.0 1:0.5155393053016519 
-1.0 1:0.5612431444241379 
-1.0 1:0.6096892138939707 
-1.0 1:0.6142595978062152 
-1.0 1:0.6343692870201115 
0.13707747697828343 1:0.5859232175502788 
-1.0 1:0.5548446069469853 
1.0 1:0.511882998171846 
-1.0 1:0.5082266910420504 
1.0 1:0.4588665447897688 
-0.8058342416812236 1:0.4643510054844621 
1.0 1:0.442413162705668 
1.0 1:0.4058500914076812 
1.0 1:0.3217550274223106 
1.0 1:0.2617915904936032 
1.0 1:0.1773308957952509 
1.0 1:0.15027422303473467 
1.0 1:0.06581352833638242 
-1.0 1:0.14076782449726413 
-1.0 1:0.14808043875685525 
-1.0 1:0.020109689213896362 
-1.0 1:0.010054844606948181 
-1.0 1:0.0036563071298059513 
-1.0 1:0.08226691042048322 
-1.0 1:0.11334552102376626 
-1.0 1:0.14990859232176343 
1.0 1:0.08592321755027878 
-1.0 1:0.13162705667276484 
-1.0 1:0.19561243144424947 
1.0 1:0.13162705667276484 
1.0 1:0.062157221206586864 
-1.0 1:0.08043875685558545 
-1.0 1:0.12248628884826555 
-0.7928458893182906 1:0.1352833638025604 
-1.0 1:0.23400365630713404 
-1.0 1:0.2815356489945179 
1.0 1:0.18098720292504647 
1.0 1:0.153564899451559 
