svm_type epsilon_svr
kernel_type rbf
gamma 1.0
nr_class 2
total_sv 71
rho -537.7805649106882
SV
-1.0 1:0.8333333333333393 
-1.0 1:0.9496855345912042 
1.0 1:0.9371069182390142 
1.0 1:0.8490566037736126 
1.0 1:0.786163522012591 
1.0 1:0.7232704402515694 
-1.0 1:0.8176100628931018 
-1.0 1:0.8773584905660401 
-1.0 1:0.9559748427672992 
1.0 1:0.9842767295597625 
1.0 1:0.8113207547170067 
-1.0 1:0.9119496855345984 
0.7605486536072493 1:0.8993710691824084 
0.9781301159378147 1:0.981132075471715 
1.0 1:0.968553459119525 
1.0 1:0.9150943396226459 
1.0 1:0.9025157232704559 
1.0 1:0.85220125786166 
1.0 1:0.8031446540880547 
1.0 1:0.5323899371069215 
1.0 1:0.3333333333333572 
-1.0 1:0.3930817610062955 
-1.0 1:0.432389937106925 
1.0 1:0.3553459119496897 
-1.0 1:0.650943396226441 
-1.0 1:0.7254716981132241 
-1.0 1:0.7452830188679377 
-1.0 1:0.7893081761006385 
1.0 1:0.6886792452830469 
1.0 1:0.6100628930817877 
1.0 1:0.5094339622641604 
-1.0 1:0.5880503144654194 
1.0 1:0.46069182389938834 
-1.0 1:0.584905660377372 
-1.0 1:0.6981132075471894 
1.0 1:0.5943396226415145 
-1.0 1:0.7295597484277002 
1.0 1:0.6257861635220253 
1.0 1:0.5094339622641604 
-1.0 1:0.6446540880503103 
1.0 1:0.5559748427673135 
-1.0 1:0.6226415094339778 
1.0 1:0.4339622641509488 
-1.0 1:0.5031446540880654 
1.0 1:0.4496855345911863 
-1.0 1:0.5094339622641604 
1.0 1:0.41823899371071127 
-1.0 1:0.4716981132075546 
0.5502639143594006 1:0.4150943396226638 
1.0 1:0.2327044025157298 
-1.0 1:0.30503144654089387 
-1.0 1:0.3018867924528464 
-1.0 1:0.4654088050314596 
-1.0 1:0.5094339622641604 
1.0 1:0.4402515723270438 
-1.0 1:0.5628930817610037 
1.0 1:0.37893081761008174 
-1.0 1:0.3993710691823905 
-1.0 1:0.408805031446533 
1.0 1:0.2452830188679198 
-1.0 1:0.2295597484276823 
0.7110573160955354 1:0.05660377358489082 
-1.0 
-1.0 1:0.11006289308176989 
-1.0 1:0.1729559748427557 
-1.0 1:0.17924528301888648 
-1.0 1:0.5188679245283029 
1.0 1:0.4465408805031388 
1.0 1:0.29245283018866813 
1.0 1:0.11006289308176989 
-1.0 1:0.1194968553459124 
