svm_type epsilon_svr
kernel_type rbf
gamma 1.0
nr_class 2
total_sv 10
rho -78.833529762218
SV
0.4075729888441443 1:0.9716981132075462 
1.0 1:0.5943396226415039 
0.2397960183863403 1:0.4481132075471769 
1.0 1:0.22735849056603694 
0.3526309927695154 1:0.15094339622641156 
-1.0 1:0.36792452830188654 
1.0 1:0.2735849056603827 
-1.0 1:0.29150943396226114 
-1.0 1:0.09433962264151728 
-1.0 1:0.2358490566037731 
