svm_type epsilon_svr
kernel_type rbf
gamma 1.0
nr_class 2
total_sv 28
rho -44.42997628125366
SV
-1.0 1:1.0 
-1.0 1:0.8750000000000018 
-1.0 1:0.520161290322581 
-1.0 1:0.14919354838709592 
-1.0 1:0.18145161290322717 
-1.0 
1.0 1:0.0725806451612903 
1.0 1:0.3790322580645157 
1.0 1:0.6693548387096769 
1.0 1:0.6008064516129048 
0.5439898676086548 1:0.048387096774192576 
1.0 1:0.6491935483870974 
1.0 1:0.7177419354838723 
1.0 1:0.7862903225806473 
-1.0 1:0.7782258064516138 
-1.0 1:0.3548387096774208 
-1.0 1:0.41532258064516225 
-1.0 1:0.6491935483870974 
-0.9420961249181795 1:0.754032258064516 
1.0 1:0.46370967741935487 
1.0 1:0.41532258064516225 
1.0 1:0.7741935483870984 
-1.0 1:0.576612903225807 
-1.0 1:0.18548387096774252 
-0.6018937426904751 1:0.22983870967741976 
1.0 1:0.028225806451613055 
1.0 1:0.177419354838709 
1.0 1:0.42338709677419295 
