svm_type epsilon_svr
kernel_type rbf
gamma 1.0
nr_class 2
total_sv 26
rho -44.52795062449106
SV
-1.0 
0.8259996197641194 1:0.22118380062305318 
-1.0 1:0.5514018691588793 
-1.0 1:0.6074766355140194 
-1.0 1:0.35202492211838077 
1.0 1:0.43925233644859696 
1.0 1:0.5981308411214957 
-1.0 1:0.6510903426791264 
1.0 1:0.5856697819314648 
1.0 1:1.0 
-0.2885202538376491 1:0.9844236760124597 
-1.0 1:0.9221183800623053 
1.0 1:0.6853582554517141 
1.0 1:0.8130841121495324 
1.0 1:0.9532710280373836 
-1.0 1:0.8099688473520251 
-1.0 1:0.3239875389408096 
-1.0 1:0.34267912772585707 
-1.0 1:0.49221183800622986 
1.0 1:0.5825545171339555 
1.0 1:0.7414330218068542 
-1.0 1:0.5919003115264792 
0.46252063407352956 1:0.5077881619937701 
1.0 1:0.6697819314641739 
1.0 1:0.7694704049844231 
-1.0 1:0.7507788161993757 
