svm_type epsilon_svr
kernel_type rbf
gamma 1.0
nr_class 2
total_sv 15
rho -4.94759781241417
SV
1.0 1:0.4800000000000004 
1.0 1:0.6000000000000002 
1.0 1:0.6133333333333333 
1.0 1:0.6933333333333339 
1.0 1:0.6533333333333337 
0.06314682067827382 1:0.9466666666666667 
0.9368531793217262 
-1.0 1:0.05333333333333338 
-1.0 1:0.2666666666666669 
-1.0 1:0.3333333333333333 
-1.0 1:0.4666666666666674 
-1.0 1:0.7333333333333331 
-1.0 1:0.8000000000000007 
-1.0 1:0.6933333333333339 
1.0 1:0.25333333333333385 
