svm_type epsilon_svr
kernel_type rbf
gamma 1.0
nr_class 2
total_sv 28
rho -83.09509733080864
SV
-1.0 1:0.9121447028423765 
-1.0 1:0.7816537467700264 
-1.0 1:0.7131782945736439 
-1.0 1:0.41472868217054315 
1.0 1:0.6124031007751942 
1.0 1:0.6640826873385006 
1.0 1:0.7687338501291985 
1.0 1:0.7028423772609826 
-1.0 1:0.5775193798449623 
-1.0 1:0.5943152454780366 
-1.0 1:0.608527131782946 
1.0 1:0.6136950904392757 
1.0 1:0.6291989664082686 
-1.0 1:0.5155038759689928 
-1.0 1:0.5297157622739023 
-1.0 1:0.6007751937984497 
0.4386895278893322 1:0.7403100775193795 
-1.0 1:0.7028423772609826 
-1.0 1:0.691214470284238 
1.0 1:0.8863049095607243 
1.0 1:0.8049095607235138 
1.0 1:0.6692506459948321 
-0.4386895278893322 1:0.4315245478036175 
1.0 1:0.23126614987080157 
1.0 1:0.06459948320413429 
1.0 1:0.062015503875969435 
1.0 1:0.17571059431524702 
-1.0 
