svm_type epsilon_svr
kernel_type rbf
gamma 1.0
nr_class 2
total_sv 26
rho -42.29587332606316
SV
1.0 1:0.40575079872204406 
1.0 1:0.47284345047923293 
1.0 1:0.2172523961661344 
1.0 1:0.17252396166134182 
1.0 1:0.11501597444089455 
-1.0 
-1.0 1:0.3067092651757173 
1.0 1:0.32268370607028735 
-1.0 1:0.5846645367412143 
-1.0 1:0.42811501597444035 
-1.0 1:0.6517571884984033 
1.0 1:0.9137380191693302 
1.0 1:0.9041533546325886 
1.0 1:0.9488817891373812 
1.0 1:0.9808306709265191 
-1.0 1:1.0 
-1.0 1:0.9073482428115017 
-1.0 1:0.7923322683706072 
-1.0 1:0.8019169329073488 
-1.0 1:0.8178913738019166 
-1.0 1:0.9105431309904148 
-1.0 1:0.6613418530351448 
1.0 1:0.4345047923322688 
1.0 1:0.5047923322683708 
1.0 1:0.42811501597444035 
-1.0 1:0.4568690095846651 
