svm_type epsilon_svr
kernel_type rbf
gamma 1.0
nr_class 2
total_sv 16
rho -15.707277760686736
SV
1.0 1:0.5243902439024396 
1.0 1:0.4024390243902447 
0.44992621569141944 1:0.4878048780487818 
1.0 1:0.18292682926829346 
1.0 1:0.24390243902438982 
1.0 1:0.28048780487804764 
0.25425986418701796 1:0.12195121951219491 
-1.0 1:0.1341463414634142 
-1.0 1:0.12195121951219491 
-1.0 1:0.36585365853658475 
-1.0 1:0.5000000000000011 
-1.0 1:0.6463414634146345 
-1.0 1:0.36585365853658475 
-1.0 1:0.8170731707317087 
0.29581392012156266 1:0.9512195121951229 
1.0 1:0.9756097560975614 
