svm_type epsilon_svr
kernel_type rbf
gamma 1.0
nr_class 2
total_sv 30
rho -127.00574825882913
SV
1.0 1:1.0 
1.0 1:0.7319749216300933 
1.0 1:0.8401253918495284 
1.0 1:0.39341692789968674 
1.0 1:0.6159874608150472 
1.0 1:0.7115987460815046 
1.0 1:0.6363636363636358 
1.0 1:0.7225705329153593 
-1.0 1:0.7617554858934157 
-1.0 1:0.6771159874608151 
-1.0 1:0.5266457680250775 
-1.0 1:0.5909090909090916 
1.0 1:0.800940438871472 
1.0 1:0.4827586206896542 
-1.0 1:0.315047021943574 
-1.0 1:0.34326018808777564 
-1.0 1:0.6473354231974927 
1.0 1:0.1583072100313485 
-1.0 1:0.31347962382445094 
-1.0 1:0.17868338557993713 
-1.0 1:0.6974921630094038 
-1.0 1:0.7789968652037604 
-1.0 1:0.5736677115987469 
-1.0 1:0.8244514106583067 
-1.0 1:0.9764890282131653 
-0.20680555300876863 1:0.752351097178684 
1.0 1:0.42476489028213227 
0.20680555300876863 1:0.21159874608150572 
1.0 1:0.3463949843260195 
1.0 
