svm_type epsilon_svr
kernel_type rbf
gamma 1.0
nr_class 2
total_sv 28
rho -44.79893212556839
SV
-1.0 1:0.45121951219512085 
-1.0 1:0.6067073170731712 
-1.0 1:0.6585365853658524 
-1.0 1:1.0 
-1.0 1:0.9847560975609743 
0.21930059993701184 1:0.9237804878048781 
1.0 1:0.692073170731708 
1.0 1:0.8170731707317069 
1.0 1:0.9542682926829272 
1.0 1:0.8140243902439027 
1.0 1:0.33841463414634115 
1.0 1:0.5030487804878043 
1.0 1:0.49695121951219573 
1.0 1:0.5914634146341454 
-1.0 1:0.7469512195121957 
-1.0 1:0.7926829268292684 
-1.0 1:0.6006097560975604 
-1.0 1:0.51829268292683 
-1.0 1:0.5853658536585369 
1.0 1:0.6768292682926823 
1.0 1:0.7743902439024385 
1.0 1:0.7560975609756085 
-1.0 1:0.6615853658536588 
-1.0 1:0.3932926829268289 
-1.0 1:0.30792682926829196 
1.0 1:0.11280487804877967 
1.0 1:0.13719512195122033 
-0.21930059993701184 
