svm_type epsilon_svr
kernel_type rbf
gamma 1.0
nr_class 2
total_sv 9
rho -4.980112125873565
SV
1.0 1:0.7068965517241381 
-0.05290554806100052 1:0.8965517241379317 
1.0 1:0.4655172413793111 
-1.0 1:0.43103448275862066 
-1.0 1:0.22413793103448254 
-0.9470944519389994 1:0.12068965517241427 
1.0 1:0.06896551724137936 
-1.0 1:0.6206896551724143 
1.0 1:0.4655172413793111 
