svm_type epsilon_svr
kernel_type rbf
gamma 1.0
nr_class 2
total_sv 30
rho -380.86679235696795
SV
1.0 1:0.9443772672309555 
1.0 1:1.0 
1.0 1:0.9326884320838366 
1.0 1:0.370415155179363 
1.0 1:0.7928254735993556 
1.0 1:0.6884320838371617 
1.0 1:0.7553405884723905 
1.0 1:0.6444981862152361 
-1.0 1:0.6561870213623527 
1.0 1:0.692059653365579 
1.0 1:0.5977428456267627 
1.0 1:0.3240628778718267 
1.0 1:0.4300685207577596 
1.0 1:0.2370012091898426 
1.0 1:0.15679161628375599 
1.0 1:0.23095525997581692 
-1.0 1:0.3313180169286566 
-1.0 1:0.16888351471180965 
-1.0 1:0.039500201531641195 
-1.0 1:0.185006045949213 
-1.0 1:0.31116485288190127 
-1.0 1:0.3522773075372837 
-1.0 1:0.4885126964933496 
-1.0 1:0.2769044740024185 
-1.0 1:0.3534864973800879 
-1.0 1:0.22370012091898472 
-1.0 1:0.2813381700927053 
-1.0 1:0.16968964127367914 
-1.0 1:0.3172108020959292 
-1.0 
