svm_type epsilon_svr
kernel_type rbf
gamma 1.0
nr_class 2
total_sv 30
rho -380.24036936044695
SV
1.0 1:0.3201304753028896 
1.0 1:0.40866728797763235 
1.0 1:0.2586206896551732 
1.0 1:0.3252562907735333 
1.0 1:0.19617893755824714 
1.0 1:0.3667287977632811 
1.0 
1.0 1:0.14631873252562858 
-1.0 1:0.5680335507921719 
1.0 1:0.6393289841565696 
1.0 1:1.0 
1.0 1:0.7618825722274016 
1.0 1:0.8499534016775409 
1.0 1:0.8988816402609524 
1.0 1:0.6425908667287993 
1.0 1:0.8588070829450151 
-1.0 1:0.8853681267474379 
-1.0 1:0.5694315004659823 
-1.0 1:0.6416589002795897 
-1.0 1:0.8056849953401695 
-1.0 1:0.588536812674744 
-1.0 1:0.3261882572227403 
-1.0 1:0.42218080149114684 
-1.0 1:0.7204100652376512 
-1.0 1:0.5032618825722284 
-1.0 1:0.40866728797763235 
-1.0 1:0.3089468779123952 
-1.0 1:0.19524697110904016 
-1.0 1:0.36859273066169507 
-1.0 1:0.350419384902143 
