svm_type epsilon_svr
kernel_type rbf
gamma 1.0
nr_class 2
total_sv 24
rho -82.7101234471798
SV
-1.0 
-1.0 1:0.2599388379204895 
-1.0 1:0.480122324159021 
1.0 1:0.42201834862385357 
1.0 1:0.5565749235474001 
1.0 1:0.8960244648318033 
1.0 1:0.7415902140672789 
-1.0 1:0.6605504587155968 
-1.0 1:0.3073394495412849 
-1.0 1:0.5412844036697252 
1.0 1:0.6024464831804273 
-1.0 1:0.7262996941896017 
-1.0 1:0.6483180428134564 
-1.0 1:0.5000000000000011 
-1.0 1:0.5611620795107031 
1.0 1:0.4434250764525998 
1.0 1:0.5275229357798165 
1.0 1:0.6773700305810402 
1.0 1:0.6926605504587151 
-1.0 1:0.6483180428134564 
1.0 1:0.6345565749235477 
1.0 1:1.0 
1.0 1:0.8654434250764534 
-1.0 1:0.6085626911314985 
