svm_type epsilon_svr
kernel_type rbf
gamma 1.0
nr_class 2
total_sv 28
rho -127.39742717266084
SV
1.0 1:0.20212765957446857 
1.0 1:0.5734042553191472 
1.0 1:0.7776595744680849 
1.0 1:1.0 
1.0 1:0.7478723404255316 
1.0 1:0.6829787234042536 
-1.0 1:0.571276595744681 
1.0 1:0.38936170212765897 
-1.0 1:0.46276595744680765 
-1.0 1:0.15957446808510628 
-1.0 1:0.31063829787234043 
-1.0 1:0.3755319148936169 
1.0 1:0.3244680851063825 
1.0 1:0.3829787234042545 
-1.0 1:0.4095744680851055 
-1.0 1:0.3521276595744681 
-1.0 1:0.24999999999999925 
1.0 1:0.2936170212765961 
-1.0 1:0.4361702127659566 
-1.0 1:0.22021276595744596 
-1.0 1:0.10638297872340419 
-1.0 1:0.33191489361702153 
-1.0 
-1.0 1:0.1053191489361696 
1.0 1:0.013829787234042061 
1.0 1:0.36595744680851017 
1.0 1:0.2819148936170217 
1.0 1:0.4521276595744678 
