svm_type epsilon_svr
kernel_type rbf
gamma 1.0
nr_class 2
total_sv 27
rho -82.79764686346053
SV
-1.0 1:1.0 
-1.0 1:0.7785800240673884 
-1.0 1:0.5920577617328521 
-1.0 1:0.4368231046931401 
1.0 1:0.5403128760529492 
1.0 1:0.3766546329723219 
1.0 1:0.3742478941034896 
-1.0 1:0.6016847172081827 
-1.0 1:0.6702767749699164 
1.0 1:0.814681107099879 
1.0 1:0.7773766546329731 
1.0 1:0.6209386281588442 
-1.0 1:0.6389891696750903 
-1.0 1:0.5451263537906137 
1.0 1:0.7184115523465701 
1.0 1:0.6161251504211797 
-1.0 1:0.5294825511432015 
-0.3043880111855728 1:0.6570397111913365 
-1.0 1:0.27316486161251446 
1.0 1:0.13959085439229799 
1.0 1:0.15643802647412716 
-1.0 1:0.21540312876053017 
1.0 1:0.24909747292418855 
1.0 1:0.09025270758122741 
1.0 
-0.6956119888144272 1:0.0036101083032492333 
-1.0 1:0.14079422382671497 
