svm_type epsilon_svr
kernel_type rbf
gamma 1.0
nr_class 2
total_sv 30
rho -544.9809291434287
SV
1.0 1:0.6368586387434548 
1.0 1:0.6684816753926693 
1.0 1:0.48712041884816737 
1.0 1:0.563979057591622 
1.0 1:0.4134031413612567 
-1.0 1:0.5849214659685853 
-1.0 1:0.49424083769633315 
-1.0 1:0.5744502617801036 
-1.0 1:0.8642931937172771 
-1.0 1:0.8398952879581132 
-1.0 1:1.0 
-1.0 1:0.958952879581151 
-1.0 1:0.9646073298429308 
-1.0 1:0.9164397905759161 
-1.0 1:0.6454450261780091 
-1.0 1:0.5842931937172771 
-1.0 1:0.3411518324607322 
-1.0 1:0.17821989528795792 
-1.0 1:0.09068062827224979 
-1.0 1:0.2381151832460734 
1.0 1:0.32020942408376885 
1.0 1:0.2538219895287959 
1.0 1:0.31958115183246055 
1.0 1:0.44879581151832354 
1.0 1:0.32146596858638554 
1.0 1:0.17570680628272223 
1.0 1:0.19602094240837725 
1.0 1:0.005235602094240838 
1.0 1:0.07162303664921381 
1.0 
