svm_type epsilon_svr
kernel_type rbf
gamma 1.0
nr_class 2
total_sv 25
rho -26.074245601892468
SV
1.0 1:0.5687331536388137 
1.0 1:0.490566037735849 
1.0 1:0.5983827493261451 
1.0 1:0.6603773584905657 
0.961737457883729 1:0.6684636118598383 
-1.0 1:0.7897574123989216 
0.0382625421162709 1:1.0 
1.0 1:0.2506738544474392 
1.0 1:0.05660377358490588 
1.0 1:0.05929919137466275 
1.0 1:0.10242587601078137 
1.0 1:0.03773584905660392 
1.0 1:0.010781671159029418 
-1.0 1:0.08625336927223726 
-1.0 
-1.0 1:0.029649595687331377 
-1.0 1:0.12668463611859804 
-1.0 1:0.1805929919137461 
-1.0 1:0.16172506738544412 
-1.0 1:0.14285714285714218 
-1.0 1:0.22641509433962256 
-1.0 1:0.13746630727762746 
-1.0 1:0.1752021563342314 
1.0 1:0.06469002695417746 
-1.0 1:0.16172506738544412 
