svm_type epsilon_svr
kernel_type rbf
gamma 1.0
nr_class 2
total_sv 27
rho -26.333892369270323
SV
1.0 1:0.5155279503105581 
1.0 1:0.5031055900621112 
1.0 1:0.590062111801242 
1.0 1:0.3354037267080741 
1.0 1:0.5590062111801235 
1.0 1:0.4285714285714295 
1.0 1:0.4161490683229826 
1.0 1:0.7080745341614912 
1.0 1:0.5714285714285727 
0.5309535142165902 1:0.819875776397516 
1.0 1:0.7204968944099382 
1.0 1:0.8447204968944099 
1.0 1:1.0 
-1.0 1:0.9254658385093161 
-1.0 1:0.8633540372670814 
-1.0 1:0.8757763975155284 
-1.0 1:0.5527950310559012 
-1.0 1:0.4161490683229826 
-1.0 1:0.44099378881987644 
-1.0 1:0.3167701863354048 
-1.0 1:0.46583850931677034 
-1.0 1:0.4161490683229826 
-1.0 1:0.4037267080745334 
-1.0 1:0.24223602484472093 
-1.0 1:0.16770186335403706 
-1.0 1:0.1366459627329186 
0.46904648578340974 
