svm_type epsilon_svr
kernel_type rbf
gamma 1.0
nr_class 2
total_sv 26
rho -41.7595814716816
SV
1.0 1:1.0 
1.0 1:0.87037037037037 
1.0 1:0.9703703703703684 
1.0 1:0.4925925925925914 
1.0 1:0.6925925925925909 
1.0 1:0.7296296296296284 
1.0 1:0.503703703703703 
1.0 1:0.5444444444444434 
-1.0 1:0.529629629629629 
-1.0 1:0.44074074074073943 
-1.0 1:0.45925925925925953 
-1.0 1:0.46666666666666545 
-1.0 1:0.13703703703703596 
-1.0 1:0.2481481481481485 
-1.0 1:0.340740740740741 
-1.0 1:0.4333333333333335 
-1.0 1:0.9666666666666655 
-1.0 1:0.951851851851851 
-1.0 1:0.9592592592592595 
-1.0 1:0.7407407407407399 
-1.0 1:0.818518518518518 
1.0 1:0.522222222222223 
1.0 1:0.47037037037037105 
1.0 1:0.40370370370370456 
1.0 1:0.27037037037037154 
1.0 1:0.6259259259259244 
