svm_type epsilon_svr
kernel_type rbf
gamma 1.0
nr_class 2
total_sv 24
rho -43.47525752484798
SV
1.0 1:0.9413754227733939 
1.0 1:0.9887260428410378 
1.0 1:1.0 
1.0 1:0.8726042841037209 
-0.20755304295360325 1:0.85456595264938 
0.20755304295360313 1:0.34385569334836585 
1.0 1:0.3043968432919959 
1.0 1:0.26493799323562595 
-1.0 1:0.295377677564825 
-1.0 1:0.222096956031567 
1.0 1:0.15332581736189402 
-1.0 1:0.165727170236753 
-1.0 1:0.13416009019165706 
-1.0 1:0.14205186020293104 
-1.0 
-1.0 1:0.04847801578354 
-1.0 1:0.04171364148816207 
-1.0 1:0.07553551296505094 
-1.0 1:0.07666290868094701 
-1.0 1:0.10372040586245794 
1.0 1:0.13190529875986495 
1.0 1:0.294250281848929 
1.0 1:0.289740698985344 
1.0 1:0.225479143179256 
