svm_type epsilon_svr
kernel_type rbf
gamma 1.0
nr_class 2
total_sv 15
rho -15.609487866759302
SV
1.0 1:0.9253731343283571 
-1.0 1:1.0 
-1.0 1:0.641791044776119 
1.0 1:0.373134328358209 
-0.5472040083103209 1:0.7164179104477593 
1.0 1:0.761194029850746 
-1.0 1:0.4477611940298492 
-1.0 1:0.29850746268656614 
-1.0 1:0.3432835820895503 
-1.0 1:0.31343283582089415 
-0.4527959916896791 1:0.1641791044776111 
1.0 1:0.14925373134328307 
1.0 1:0.4477611940298492 
1.0 1:0.611940298507463 
1.0 1:0.4477611940298492 
