svm_type epsilon_svr
kernel_type rbf
gamma 1.0
nr_class 2
total_sv 16
rho -5.030824127197266
SV
1.0 1:0.837209302325581 
1.0 1:0.6046511627906984 
1.0 1:0.6279069767441863 
1.0 1:0.9069767441860466 
1.0 1:0.8837209302325566 
1.0 1:0.5813953488372084 
0.3125869921175687 1:0.48837209302325507 
1.0 
-0.3125869921175689 1:0.16279069767441903 
-1.0 1:0.09302325581395345 
-1.0 1:0.5813953488372084 
-1.0 1:0.837209302325581 
-1.0 1:0.5348837209302328 
-1.0 1:0.6279069767441863 
-1.0 1:0.837209302325581 
-1.0 1:0.9302325581395344 
