svm_type epsilon_svr
kernel_type rbf
gamma 1.0
nr_class 2
total_sv 14
rho -15.702098521276321
SV
1.0 
-0.8588131476004958 1:0.3490566037735851 
-0.26105290871512743 1:0.4716981132075462 
-1.0 1:0.16981132075471636 
0.11986605631562297 1:0.5754716981132058 
1.0 1:0.4056603773584894 
-1.0 1:0.5566037735849043 
-1.0 1:0.7264150943396207 
-1.0 1:0.5660377358490567 
-1.0 1:1.0 
1.0 1:0.7641509433962269 
1.0 1:0.6981132075471702 
1.0 1:0.8301886792452803 
1.0 1:0.3396226415094344 
