svm_type epsilon_svr
kernel_type rbf
gamma 1.0
nr_class 2
total_sv 19
rho -26.012779693007467
SV
-0.8777586954505076 1:0.6253369272237196 
1.0 1:0.5606469002695412 
-1.0 1:0.5687331536388137 
1.0 1:0.490566037735849 
1.0 1:0.5983827493261451 
1.0 1:0.6603773584905657 
1.0 1:0.6684636118598383 
1.0 1:0.7169811320754715 
1.0 1:0.7628032345013471 
-1.0 1:1.0 
-1.0 1:0.2506738544474392 
-1.0 1:0.10242587601078137 
-1.0 1:0.03773584905660392 
-1.0 1:0.010781671159029418 
1.0 1:0.0026954177897568756 
-1.0 1:0.08625336927223726 
-1.0 
1.0 1:0.029649595687331377 
-0.12224130454949245 1:0.16172506738544412 
