svm_type epsilon_svr
kernel_type rbf
gamma 1.0
nr_class 2
total_sv 30
rho -381.2045955860615
SV
1.0 1:0.7000643086816714 
1.0 1:0.7976848874598068 
1.0 1:0.7969131832797425 
1.0 1:0.9158842443729901 
1.0 1:1.0 
1.0 1:0.2911897106109323 
1.0 1:0.2887459807073954 
1.0 1:0.3064951768488744 
-1.0 1:0.2850160771704176 
1.0 1:0.10559485530546597 
1.0 1:0.24038585209003213 
1.0 1:0.2070739549839224 
1.0 1:0.22842443729903525 
1.0 1:0.1930546623794211 
1.0 1:0.19678456591639812 
1.0 1:0.20823151125401926 
-1.0 1:0.17813504823151083 
-1.0 1:0.09080385852090035 
-1.0 1:0.12463022508038582 
-1.0 1:0.06302250803858492 
-1.0 1:0.037427652733118565 
-1.0 1:0.06109324758842444 
-1.0 1:0.09311897106109264 
-1.0 1:0.041286173633440254 
-1.0 
-1.0 1:0.046430868167202016 
-1.0 1:0.08668810289389006 
-1.0 1:0.09980707395498381 
-1.0 1:0.14327974276527314 
-1.0 1:0.07575562700964612 
