svm_type epsilon_svr
kernel_type rbf
gamma 1.0
nr_class 2
total_sv 29
rho -126.72427533984182
SV
1.0 1:0.6090973702914 
1.0 1:0.6780383795309166 
1.0 1:0.5764036958066812 
1.0 1:0.4278606965174129 
1.0 1:0.33120113717128635 
1.0 1:0.392324093816631 
-0.8413954317728425 1:0.2352523098791748 
1.0 1:0.396588486140725 
-1.0 1:0.5835110163468371 
-1.0 1:0.5451314854299922 
-1.0 1:0.5316275764036953 
1.0 1:0.6830135039090256 
1.0 1:0.7412935323383093 
1.0 1:0.7221037668798864 
-1.0 1:0.6773276474769017 
-0.15860456822715752 1:0.8166311300639649 
-1.0 1:0.7007818052594165 
1.0 1:0.9410092395167012 
-1.0 1:1.0 
-1.0 1:0.7512437810945273 
-1.0 1:0.6766169154228846 
-1.0 1:0.6325515280739158 
-1.0 1:0.5792466240227431 
-1.0 1:0.5351812366737733 
-1.0 1:0.4228855721393029 
1.0 1:0.2196162046908309 
-1.0 1:0.056147832267234715 
1.0 
1.0 1:0.07178393745557864 
