svm_type epsilon_svr
kernel_type rbf
gamma 1.0
nr_class 2
total_sv 30
rho -546.5865256261825
SV
1.0 1:0.28803641092327803 
1.0 1:0.5424794104898143 
1.0 1:0.6421759861291706 
1.0 1:0.6788036410923273 
1.0 1:0.8888166449934959 
-1.0 1:0.4973992197659297 
-1.0 1:0.3319245773732124 
-1.0 1:0.21499783268313938 
-1.0 1:0.24555700043346373 
-1.0 
-1.0 1:0.211313394018205 
-1.0 1:0.18378846987429562 
-1.0 1:0.13740788903337708 
-1.0 1:0.32769830949284723 
-1.0 1:0.34590377113133947 
-1.0 1:0.3625921109666229 
-1.0 1:0.3805808409189428 
-1.0 1:0.28110099696575636 
-1.0 1:0.27557433896835726 
-1.0 1:0.248807975726051 
1.0 1:0.40117035110533056 
1.0 1:0.5190723883831815 
1.0 1:0.6064152579107056 
1.0 1:0.5264412657130478 
1.0 1:0.6744690073688759 
1.0 1:0.7528175119202414 
1.0 1:1.0 
1.0 1:0.7533593411356722 
1.0 1:0.7869527524924139 
1.0 1:0.7355873428695271 
